0.0017492669867351651    -0.09196361154317856    -0.01284765638411045    0.03263082355260849    0.04380936548113823    -0.004474282264709473    -0.0900280773639679    0.003182395128533244    0.033358629792928696    0.08785060048103333    -0.10195590555667877    0.09202572703361511    -0.04083119332790375    0.08429467678070068    0.02020271308720112    -0.10056094080209732    0.08600623905658722    0.02538769505918026    0.07998890429735184    -0.0008070491021499038    -0.03833756968379021    0.03144579008221626    0.08833107352256775    0.0644872710108757    -0.03415699303150177    0.0831238180398941    0.0024068565107882023    -0.03242963179945946    0.004541696049273014    0.10115032643079758    -0.0668492242693901    0.017628507688641548    -0.004435891751199961    0.020427754148840904    0.08613617718219757    -0.10196375846862793    0.05457377806305885    0.02125278115272522    -0.07986941933631897    -0.09576781094074249    -0.024708151817321777    0.009474797174334526    -0.09325293451547623    -0.02045554108917713    -0.005408420693129301    -0.09330350905656815    -0.0533660463988781    -0.048378922045230865    -0.058719146996736526    0.04067768156528473    -0.05109776556491852    0.04051655903458595    -0.045922327786684036    -0.021883467212319374    0.08717959374189377    -0.06788608431816101    0.05133511498570442    0.055546052753925323    -0.08265255391597748    0.09289142489433289    -0.024997325614094734    -0.08342314511537552    -0.059650734066963196    0.04610776528716087    -0.02300450950860977    0.10057391971349716    -0.00579919433221221    -0.07620116323232651    0.05156605318188667    0.06175537407398224    -0.022012943401932716    -0.08634168654680252    -0.030955586582422256    -0.08040035516023636    -0.06579111516475677    -0.011002570390701294    0.0465695895254612    0.03382348269224167    -0.008037213236093521    0.08414029330015182    -0.047320686280727386    0.1021893322467804    -0.06893273442983627    -0.024662047624588013    0.06366168707609177    0.04569000005722046    -0.011773274280130863    -0.021691931411623955    0.005079127382487059    -0.09437821805477142    0.1041262075304985    -0.0868854969739914    0.08071380853652954    0.06226591765880585    0.07716341316699982    0.039773136377334595    0.021626271307468414    0.038227953016757965    0.08288078010082245    0.06174854561686516    -0.05393262580037117    0.10084421187639236    -0.06035200133919716    -0.025820091366767883    0.0887470468878746    0.022177299484610558    0.09955016523599625    0.09911499172449112    -0.06317002326250076    0.049995508044958115    0.07901852577924728    0.09940865635871887    0.10258716344833374    0.003733548801392317    0.008235731162130833    0.05613631755113602    -0.07085762917995453    -0.06288685649633408    -0.09496179223060608    0.06162216514348984    0.08182871341705322    0.0971299335360527    0.04766304790973663    0.06713472306728363    -0.02078922651708126    0.040660563856363297    -0.008520952425897121    0.10402801632881165    0.020153073593974113    -0.10039899498224258    -0.04633769392967224    0.05578702688217163    0.024585645645856857    -0.04462900012731552    0.029709437862038612    -0.016115481033921242    0.008551578968763351    -0.08286496996879578    -0.09408839046955109    -0.010790330357849598    0.049493540078401566    0.09462811797857285    0.025483615696430206    -0.05725548043847084    -0.028344253078103065    -0.0747225359082222    -0.09943049401044846    -0.005427382420748472    0.0030378843657672405    -0.07026056200265884    0.0595281645655632    0.07585994899272919    0.014659514650702477    -0.01310400664806366    -0.06099705770611763    0.08811473101377487    -0.0773865357041359    0.0940357893705368    0.05764343589544296    0.04110453650355339    -0.01907971501350403    0.04968474805355072    -0.026710007339715958    0.006946532987058163    0.06922576576471329    -0.00019943939696531743    -0.0264856219291687    0.08164562284946442    0.08305660635232925    0.057255830615758896    0.014652596786618233    -0.06561882793903351    -0.06224096938967705    -0.09297661483287811    -0.07653412967920303    -0.016808392480015755    -0.07382787019014359    0.05977659672498703    -0.04765884205698967    -0.08415612578392029    0.07807410508394241    0.009435132145881653    -0.0848633199930191    0.03555385395884514    0.09659972786903381    -0.1058620810508728    0.09081850945949554    -0.050668828189373016    0.10434716194868088    0.08945333957672119    -0.09625572711229324    -0.09305472671985626    0.046269018203020096    -0.02695409767329693    -0.07885253429412842    -0.018229855224490166    -0.015531465411186218    -0.08141251653432846    0.053945351392030716    0.07592714577913284    -0.0013926797546446323    -0.04862527549266815    -0.023549338802695274    -0.02493213303387165    -0.06234942749142647    -0.0037697176449000835    -0.04410930722951889    0.0375710092484951    0.055241771042346954    0.03175594285130501    0.04178541898727417    -0.07129460573196411    -0.04591379314661026    -0.0541413314640522    0.05812209099531174    0.09808541089296341    0.04104048013687134    0.05089642107486725    -0.07596699148416519    0.09019660949707031    0.03698870912194252    0.014141285791993141    -0.03209858015179634    0.023692334070801735    0.030081918463110924    0.04151081293821335    0.051597412675619125    0.0898788571357727    0.0753512904047966    -0.1040608137845993    0.044552940875291824    -0.07493636757135391    -0.00699246022850275    0.02234373800456524    0.05026690661907196    -0.03242340683937073    0.10491490364074707    -0.017148630693554878    -0.028447015210986137    0.0700673833489418    0.07388773560523987    0.027403827756643295    0.09937500953674316    -0.0448978990316391    -0.10474124550819397    -0.018417606130242348    -0.06377279758453369    0.0266790259629488    0.0183220524340868    -0.05030126869678497    -0.05515703558921814    0.05214761942625046    -0.07243001461029053    0.004818030633032322    -0.006436193827539682    0.06610521674156189    -0.015953408554196358    -0.04318850114941597    0.10009804368019104    0.025168662890791893    -0.008416145108640194    -0.04708082601428032    -0.051148489117622375    0.014525014907121658    0.002161161508411169    -0.03946197032928467    -0.06191657483577728    -6.75023693474941e-05    0.017289316281676292    -0.0465206578373909    -0.020189091563224792    0.1048535481095314    -0.07407213747501373    0.09090160578489304    -0.08644859492778778    0.020662782713770866    -0.0638468861579895    0.03875143453478813    0.02675563097000122    0.042064644396305084    -0.03545340150594711    0.015003162436187267    -0.06484788656234741    0.08200443536043167    -0.021346844732761383    -0.049749307334423065    -0.10156076401472092    -0.10255274921655655    -0.09288891404867172    0.10000550746917725    0.02351686917245388    0.019778963178396225    0.0007442429778166115    0.026662399992346764    0.09175899624824524    -0.0148326326161623    -0.07705719023942947    -0.06724753230810165    -0.06957856565713882    0.05586286261677742    0.022317834198474884    0.05888240411877632    0.0972406417131424    -0.011899302713572979    0.0317675843834877    0.0282610971480608    -0.0875246524810791    0.017143871635198593    0.0015410032356157899    0.0772019699215889    0.016215603798627853    -0.024174029007554054    0.10079031437635422    0.07120441645383835    0.0034378741402179003    0.09459052234888077    0.057460587471723557    -0.06525401026010513    0.10332336276769638    -0.055458202958106995    -0.02919158712029457    0.020712560042738914    0.08712138235569    -0.08180191367864609    -0.05074683576822281    0.07192996889352798    0.09538723528385162    -0.004823850467801094    -0.055941663682460785    0.04823105409741402    -0.02643525041639805    0.033327143639326096    -0.09917002171278    0.07960843294858932    -0.05863533169031143    -0.05594433844089508    0.05487784743309021    -0.04646811634302139    0.05412567779421806    0.07457683980464935    0.050333842635154724    -0.039308685809373856    0.05180777236819267    0.08656353503465652    -0.061760514974594116    0.019222015514969826    0.098914235830307    -0.003079342655837536    -0.04889432340860367    0.010153545066714287    -0.04868946969509125    0.06618262082338333    -0.02202592045068741    -0.0501968152821064    -0.05514168366789818    0.07114199548959732    0.03172559663653374    0.05563809722661972    0.04243568703532219    -0.05522292107343674    -0.08947926759719849    0.04812932759523392    -0.09481338411569595    -0.04754653573036194    -0.025312606245279312    0.08571197837591171    0.04144402965903282    0.10041302442550659    -0.07584963738918304    -0.055338434875011444    0.028862936422228813    0.0431598424911499    -0.005522115621715784    -0.014376414008438587    -0.10439224541187286    0.07636339217424393    0.02997264266014099    -0.03974572941660881    0.01627418026328087    0.06212559714913368    -0.04425090178847313    0.07502767443656921    -0.0747697502374649    -0.08633647859096527    0.07002100348472595    0.05797431990504265    -0.010619182139635086    -0.08937381953001022    -0.0357276014983654    0.050660356879234314    -0.07618124037981033    0.051939141005277634    0.01757345348596573    0.06153304874897003    0.03177417442202568    -0.013028689660131931    -0.043413013219833374    0.06585783511400223    -0.0934230387210846    -0.10015441477298737    0.06537900120019913    0.09327380359172821    0.04684066027402878    0.031086109578609467    -0.003857583040371537    0.07178400456905365    0.09869798272848129    -0.011586307547986507    -0.020509636029601097    -0.05332386493682861    0.06981442868709564    0.08085797727108002    0.0025426691863685846    -0.0294897872954607    0.031283870339393616    -0.039877209812402725    0.06802699714899063    0.09770143032073975    0.010037288069725037    -0.017337201163172722    0.04288960620760918    -0.004371318034827709    0.01488023903220892    -0.04444931820034981    0.0896342471241951    -0.060627225786447525    0.04709608852863312    0.08265233784914017    -0.023322012275457382    -0.06443340331315994    -0.04439084231853485    0.0029290877282619476    -0.05112774670124054    -0.07099154591560364    -0.08196903020143509    0.06623174995183945    0.036121077835559845    -0.05070946738123894    0.008549610152840614    0.02336193062365055    0.013701086863875389    0.10349054634571075    -0.0927024632692337    0.07106126099824905    -0.1023969054222107    0.03041047975420952    -0.08347021788358688    -0.10196977108716965    0.02858060598373413    -0.0021001100540161133    0.10384274274110794    0.008270914666354656    -0.08470527082681656    -0.08190516382455826    0.0832204595208168    0.050799351185560226    0.060647085309028625    -0.019036689773201942    -0.01841697469353676    0.008035609498620033    0.053643349558115005    0.04254991188645363    -0.01019850093871355    0.07754384726285934    -0.061070580035448074    -0.07108578830957413    -0.06430274248123169    0.05570373311638832    -0.082936592400074    0.0730859637260437    0.06315988302230835    0.0055884565226733685    0.10524697601795197    -0.03864850848913193    -0.05558598414063454    0.03262096643447876    0.10547846555709839    0.08423501253128052    -0.05940694361925125    0.016404805704951286    0.011260018683969975    0.048530060797929764    -0.04691676050424576    0.09747383743524551    0.04534909501671791    -0.03656751289963722    -0.0658312737941742    -0.03188824653625488    -0.0030917776748538017    -0.07097634673118591    0.08749166876077652    -0.08438112586736679    -0.06323161721229553    0.09409978240728378    0.05630972608923912    0.08923693001270294    -0.053699593991041183    -0.0059199463576078415    -0.039560794830322266    0.10051578283309937    -0.08490979671478271    -0.0029625927563756704    -0.09505780041217804    -0.04160207509994507    -0.0805993303656578    -0.05927591770887375    -0.06812496483325958    0.08480073511600494    -0.026618782430887222    0.032002221792936325    0.004722224548459053    -0.005187027622014284    0.0018102552276104689    -0.09851664304733276    -0.010956681333482265    0.05697197467088699    0.09749016165733337    -0.1050369143486023    -0.06804800778627396    -0.057239800691604614    -0.09530904144048691    -0.05241165682673454    0.04869452118873596    0.06967746466398239    0.006022923160344362    -0.06358402222394943    -0.05765380337834358    0.002323232823982835    0.04056556522846222    -0.07357664406299591    -0.10074572265148163    -0.009409933350980282    0.04010268300771713    -0.034836169332265854    -0.09411689639091492    -0.09318980574607849    -0.10304950177669525    0.09880057722330093    -0.08231429755687714    -0.012198828160762787    0.07139503210783005    0.07531062513589859    0.02129528671503067    -0.03341212123632431    0.02015705034136772    0.03675973042845726    0.07949037104845047    -0.052942145615816116    -0.007976754568517208    0.0037819757126271725    0.0002883147681131959    -0.05208129063248634    0.07991009205579758    0.08632329851388931    -0.047751832753419876    -0.0030680187046527863    0.050368256866931915    0.0868716612458229    0.024414118379354477    -0.027053453028202057    -0.07973358035087585    0.10582634061574936    0.08870033174753189    -0.014328504912555218    -0.06303189694881439    -0.01291515864431858    -0.03812706097960472    -0.025032244622707367    0.08313129097223282    -0.05684637278318405    -0.0568058118224144    -0.03981773555278778    -0.07443943619728088    -0.00921204686164856    0.00560412323102355    0.028544601052999496    0.10284583270549774    -0.0888255164027214    -0.10353598743677139    0.04225558787584305    0.04569968581199646    0.023500457406044006    0.09247822314500809    0.09802477806806564    -0.055317629128694534    -0.08199407160282135    -0.08688931912183762    -0.04285486415028572    -0.10266121476888657    -0.013611214235424995    0.09421954303979874    -0.07942397892475128    0.038285911083221436    -0.061253052204847336    -0.09304006397724152    -0.029393097385764122    -0.042485423386096954    -0.043840836733579636    -0.015591545030474663    0.06717995554208755    -0.07019559293985367    0.06373969465494156    -0.0033912144135683775    0.07246869802474976    0.018335383385419846    -0.06669311970472336    0.0075722960755229    -0.01023001130670309    -0.08342452347278595    -0.02248203754425049    0.03335015848278999    0.08680776506662369    0.004060796927660704    0.07245491445064545    0.03848769888281822    0.0729433223605156    0.03736019507050514    -0.09067534655332565    -0.04720823094248772    0.04202968627214432    0.03172876313328743    0.05816785246133804    0.026262789964675903    -0.007325048558413982    -0.09750498086214066    -0.01411756407469511    -0.09379338473081589    -0.09363888949155807    -0.005051934160292149    0.01758696138858795    0.06718753278255463    -0.05002995952963829    -0.0001921172661241144    -0.003809181274846196    -0.03510405868291855    -0.030785953626036644    -0.020706765353679657    -0.09823539853096008    0.010486828163266182    0.055178508162498474    -0.08115457743406296    -0.04226904362440109    0.008982650004327297    0.012950166128575802    0.04776957258582115    0.03776663541793823    0.05820087715983391    -0.044715628027915955    -0.02521846629679203    0.07911114394664764    0.07917997241020203    0.011484731920063496    -0.030337132513523102    -0.020515430718660355    -0.04258071258664131    -0.09295592457056046    -0.07611586898565292    0.047310903668403625    -0.04330306500196457    0.009962867014110088    0.04044143110513687    -0.005619928706437349    -0.10011156648397446    0.03412023186683655    -0.06155834719538689    0.063944511115551    0.07976127415895462    -0.004905163776129484    0.057815924286842346    0.010098175145685673    -0.0632132738828659    0.07782045751810074    0.0027841476257890463    0.09275950491428375    0.04211500287055969    -0.09305831789970398    0.0008253038977272809    0.10543208569288254    -0.010004136711359024    -0.044058214873075485    -0.05164220184087753    -0.035098351538181305    -0.07372351735830307    -0.05705858767032623    -0.008271066471934319    -0.049175482243299484    0.027624791488051414    -0.10563676059246063    -0.07352753728628159    -0.04073379933834076    0.032538630068302155    -0.054136812686920166    -0.07714928686618805    0.08477815240621567    -0.05924395099282265    0.06285896897315979    -0.06880953162908554    -0.0006685726693831384    -0.10468551516532898    -0.011174122802913189    0.020959530025720596    0.026734409853816032    0.07832679897546768    0.07577651739120483    0.0786677673459053    0.028154775500297546    0.020248323678970337    -0.08684895932674408    -0.0773017480969429    0.04003630205988884    0.05199774354696274    -0.04963110759854317    -0.09619895368814468    0.01524330209940672    0.03144478052854538    0.046864937990903854    0.09225843101739883    -0.060503192245960236    -0.07082375884056091    0.002890002680942416    0.025841793045401573    0.05493614822626114    -0.02156991697847843    -0.10107417404651642    0.022527676075696945    -0.06862891465425491    0.04882178455591202    -0.010906524024903774    0.10338478535413742    0.10278847068548203    -0.08753133565187454    -0.004320227541029453    -0.04651091247797012    -0.010420966893434525    -0.07019653171300888    -0.08488847315311432    0.016526617109775543    0.04849593713879585    -0.07774814963340759    0.052858758717775345    0.01590745709836483    -0.01504194363951683    -0.00660549895837903    0.09371670335531235    0.08774498850107193    -0.030708275735378265    0.04618596285581589    -0.006775258108973503    0.08806925266981125    0.0810355395078659    -0.07673800736665726    0.06509292125701904    -0.02869255840778351    -0.054403334856033325    -0.03325466811656952    -0.0031061568297445774    -0.10174128413200378    0.07466143369674683    0.046054452657699585    -0.05791934207081795    0.042281124740839005    0.032319117337465286    0.044866617769002914    -0.08857250958681107    0.10585953295230865    -0.05675766244530678    -0.06254345178604126    -0.03948647528886795    0.08225978165864944    0.037010904401540756    0.0865919440984726    -0.014437882229685783    0.0276770181953907    -0.04330401122570038    0.07743120193481445    0.09621516615152359    0.03711137920618057    0.0792347639799118    -0.0662025511264801    -0.09869131445884705    0.08528964966535568    -0.007910237647593021    -0.04228457063436508    0.059122707694768906    0.008772403933107853    0.019465111196041107    -0.042499084025621414    -0.06383828073740005    0.06195884197950363    -0.09320302307605743    -0.07162047922611237    -0.09745442122220993    0.07430563867092133    0.10362005978822708    -0.0727119967341423    0.03163259103894234    0.0742310956120491    0.007217337377369404    -0.08706121146678925    -0.09712444245815277    -0.08651808649301529    -0.002399811986833811    -0.08927355706691742    0.07090457528829575    -0.06009694188833237    0.09413094818592072    0.0043747518211603165    0.06697114557027817    0.00863043125718832    -0.05996198579668999    0.004544902592897415    -0.01680423878133297    0.022964755073189735    0.09789016097784042    0.07980334013700485    0.02650972083210945    -0.02793307788670063    0.04276333749294281    -0.04851989820599556    0.08648788183927536    -0.030212845653295517    -0.03581339493393898    -0.03025169111788273    -0.0024309437721967697    0.10214731842279434    -0.016042334958910942    -0.06762540340423584    0.07043518126010895    -0.08067161589860916    0.01305848266929388    -0.006536973640322685    -0.02633468434214592    -0.03689466044306755    0.10275862365961075    0.04569477215409279    0.0027694781310856342    -0.04363973066210747    0.07054202258586884    0.01201189961284399    0.09287196397781372    0.056054942309856415    0.00014872739848215133    0.06221798062324524    0.05586212873458862    -0.0476357527077198    -0.046373143792152405    -0.002808891236782074    0.02117464877665043    0.027511514723300934    -0.06478200852870941    -0.10102486610412598    -0.09515313804149628    0.026838043704628944    0.0720992311835289    0.08283521234989166    -0.03358915075659752    -0.06828925758600235    -0.008491209708154202    -0.09898557513952255    -0.08266949653625488    0.09440330415964127    -0.027321821078658104    0.05182837322354317    -0.1011812686920166    0.10416410863399506    -0.07135999947786331    -0.049245964735746384    0.031007245182991028    -0.0549737811088562    0.07897811383008957    0.05891453102231026    -0.06044219061732292    -0.04367919638752937    -0.03947501257061958    0.03327292203903198    -0.038662444800138474    -0.023338953033089638    0.01889200322329998    -0.08904694765806198    0.08224548399448395    -0.020068958401679993    0.013065047562122345    -0.0739256963133812    0.014192881062626839    0.050389766693115234    -0.043584272265434265    -0.02575007639825344    -0.10485772788524628    -0.0414436012506485    0.058229561895132065    -0.005503595340996981    0.020662693306803703    0.0972839891910553    0.09652768075466156    -0.057210635393857956    0.002349655609577894    -0.06287871301174164    0.09920276701450348    0.07912783324718475    -0.05165586248040199    -0.02317209728062153    -0.04554175212979317    -0.10258737951517105    0.03203730285167694    -0.04978737235069275    -0.09246575832366943    0.07185660302639008    -0.033822182565927505    -0.009666208177804947    0.015832556411623955    -0.10105857253074646    0.04771116003394127    -0.01945301704108715    0.08926159888505936    -0.0029388084076344967    -0.0005903648561798036    0.06647510081529617    0.016578415408730507    -0.04419152811169624    0.06383556127548218    -0.012039244174957275    0.06667531281709671    0.07468953728675842    0.04701496288180351    -0.03744618967175484    -0.004607330076396465    0.05802872031927109    -0.06832288950681686    -0.05725714564323425    0.002152463421225548    0.027482906356453896    0.08245691657066345    -0.07540085166692734    -0.07310483604669571    -0.03860187530517578    0.05610402673482895    0.05188491940498352    0.07538893818855286    -0.08513191342353821    -0.09362511336803436    0.0482092909514904    -0.029799524694681168    -0.059273771941661835    0.06378784775733948    -0.06447708606719971    -0.029713161289691925    -0.04712950438261032    -0.09802094846963882    -0.047523319721221924    0.014470074325799942    -0.005554635543376207    0.0012614497682079673    -0.05553724244236946    0.05389229208230972    -0.059379398822784424    0.04149897024035454    0.06467735767364502    0.05948280543088913    0.09041164070367813    -0.027118682861328125    0.018257440999150276    -0.03721334785223007    -0.043212853372097015    -0.013247178867459297    -0.02258838526904583    -0.0075658829882740974    -0.012994893826544285    -0.07838156074285507    -0.024815281853079796    -0.01485168281942606    0.06334629654884338    -0.0007184261921793222    0.04211634024977684    0.01724880561232567    -0.00575990742072463    0.013940836302936077    -0.01638532616198063    0.0223016869276762    -0.05275394022464752    -0.061428457498550415    0.019188612699508667    0.004335906822234392    -0.07465014606714249    0.001036938396282494    -0.09343341737985611    -0.06145823746919632    0.059799812734127045    0.03008444420993328    -0.0030519352294504642    -0.053348712623119354    -0.08540679514408112    -0.017600582912564278    -0.105195552110672    0.06432162970304489    0.08685538917779922    0.08801957964897156    -0.10362602025270462    -0.0736188143491745    -0.0012360874097794294    0.04023389890789986    -0.07391134649515152    0.10578981786966324    -0.05406775698065758    0.0850692093372345    0.009036378934979439    0.040904365479946136    0.005163066554814577    0.09945204854011536    -0.06704389303922653    0.06262128055095673    -0.08495717495679855    0.049425747245550156    0.10315356403589249    0.09524570405483246    -0.05457884073257446    -0.10238078981637955    -0.0022893869318068027    -0.00017507441225461662    0.08158145099878311    -0.0037693893536925316    -0.011926268227398396    0.010053863748908043    -0.05658980831503868    0.09493663161993027    -0.0251911710947752    -0.08468440175056458    0.04932789504528046    -0.011245854198932648    0.044642772525548935    -0.02849089726805687    0.08251314610242844    -0.011198045685887337    -0.06319494545459747    0.04392862692475319    -0.05386362224817276    -0.10283324867486954    -0.08456277847290039    -0.08802806586027145    -0.09511332213878632    0.07666915655136108    0.034491363912820816    0.04989239200949669    -0.04921763390302658    -0.07791236788034439    -0.06303465366363525    -0.008372503332793713    0.07067608833312988    -0.07304194569587708    -0.07517218589782715    0.07948821038007736    -0.05962321162223816    0.07547610998153687    0.04232911020517349    -0.08626074343919754    0.09861624985933304    -0.014008780010044575    0.04302189499139786    -0.01715644635260105    -0.08037450164556503    0.09525899589061737    -0.020905926823616028    0.008162282407283783    -0.01957641914486885    0.09946128726005554    -0.015872538089752197    0.09709928184747696    -0.013114282861351967    0.0706554725766182    -0.022358736023306847    -0.023091023787856102    -0.06569100171327591    -0.06347674131393433    -0.030943693593144417    0.00544133223593235    0.04449684917926788    0.02711266092956066    -0.035909999161958694    -0.06213722378015518    0.038893092423677444    -0.02032686024904251    0.015633810311555862    -0.023929722607135773    -0.002198365516960621    -0.09081391245126724    -0.08849084377288818    0.027808766812086105    -0.03696893900632858    0.021748602390289307    -0.01868007890880108    0.03380531817674637    0.020590495318174362    -0.09497193247079849    -0.05541170760989189    -0.0787053033709526    -0.03797677904367447    0.09159163385629654    -0.029600905254483223    0.030009467154741287    -0.04770385101437569    0.09644327312707901    0.06997755169868469    0.043021731078624725    0.06488751620054245    0.054142870008945465    -0.09628748893737793    0.0073013524524867535    0.032962579280138016    -0.03321836143732071    -0.1008656919002533    -0.005086916498839855    -0.07193591445684433    -0.08020295202732086    0.07760342210531235    -0.0052153440192341805    0.006354412995278835    0.011359687894582748    0.07132557779550552    0.002717705676332116    -0.03809412196278572    0.07854440063238144    -0.0998719185590744    -0.0624089241027832    -0.07932784408330917    0.0231948085129261    -0.04458298534154892    -0.033278025686740875    0.05303012207150459    0.08781420439481735    0.09566209465265274    0.03905429318547249    -0.07168687134981155    -0.10139788687229156    -0.01081994641572237    -0.05597500503063202    -0.10403230786323547    0.06843344867229462    0.07036997377872467    0.07424680888652802    -0.08583854883909225    -0.03621437028050423    -0.041599296033382416    -0.01221474725753069    0.06768766790628433    -0.06325897574424744    -0.047199796885252    -0.0454447977244854    0.057151392102241516    0.019216815009713173    0.07329906523227692    0.05226672813296318    0.06739938259124756    -0.054057151079177856    -0.028773784637451172    0.04760827124118805    0.007065251935273409    0.02715347521007061    -0.05447104200720787    -0.029614148661494255    -0.05212784931063652    -0.02456521987915039    -0.07898155599832535    0.010966376401484013    0.018587831407785416    0.000943126913625747    0.1000540629029274    0.08843103051185608    0.0822925716638565    0.033604566007852554    -0.02928553707897663    0.0017322493949905038    0.09375260025262833    -0.09954046458005905    0.06579191982746124    -0.04662813991308212    -0.009719571098685265    -0.07159746438264847    -0.08468854427337646    -0.028117304667830467    -0.0173405222594738    0.042193539440631866    -0.025050297379493713    0.014382952824234962    -0.025331351906061172    -0.08973592519760132    -0.004468576051294804    0.022963996976614    -0.018002983182668686    0.06233997270464897    -0.04051763191819191    -0.1053953468799591    0.0706404522061348    0.08453278243541718    0.10085339844226837    -0.0834304541349411    0.08925345540046692    -0.05103930085897446    0.04943947121500969    0.0906173437833786    -0.10306811332702637    -0.07363274693489075    0.10011142492294312    0.06300364434719086    0.05041063576936722    0.04287300631403923    -0.03859841451048851    -0.03750346601009369    -0.05893062800168991    0.005894987843930721    0.02146199159324169    0.035117365419864655    0.00567623320966959    -0.056397415697574615    -0.0005826766137033701    0.07143434882164001    0.004885154310613871    0.08489194512367249    0.029172221198678017    0.0012265812838450074    0.005275448318570852    0.003927269484847784    0.10137243568897247    -0.013198372907936573    -0.061891455203294754    -0.03699037805199623    -0.015553583391010761    0.09208857268095016    -0.009695117361843586    0.0049876258708536625    0.08873970061540604    0.006240832153707743    0.06547251343727112    0.009275787509977818    0.03579481318593025    0.0718221440911293    0.08830588310956955    -0.00943408440798521    0.02286018803715706    -0.07097870856523514    -0.09610136598348618    0.0845654159784317    -0.006426599342375994    0.016491420567035675    0.10449156165122986    -0.10039176791906357    -0.03895143046975136    0.07416459918022156    -0.007925020530819893    -0.10353390127420425    -0.09898833930492401    -0.10496272146701813    -0.056593332439661026    0.06087086349725723    -0.08627187460660934    0.08649637550115585    -0.046080801635980606    -0.08256574720144272    0.08036120980978012    0.0874243825674057    0.08720748126506805    -0.02130293659865856    -0.0721123144030571    0.053878314793109894    -0.07361305505037308    0.08225832134485245    -0.09154149144887924    0.07184485346078873    0.0667363628745079    0.025629766285419464    -0.06436078995466232    0.08907930552959442    -0.020779848098754883    0.07543351501226425    -0.07538159936666489    -0.056827034801244736    -0.10203834623098373    -0.09677287191152573    0.02114461548626423    0.007217602804303169    -0.06657183170318604    0.09990149736404419    -0.05968399718403816    -0.06475470215082169    -0.058998510241508484    -0.03406231105327606    0.10192067176103592    0.05583435669541359    -0.036986589431762695    0.04002001881599426    -0.04108723998069763    0.017406053841114044    -0.055310748517513275    -0.0869666188955307    0.05720576271414757    -0.03631742298603058    -0.012990348972380161    0.055647946894168854    -0.08478102087974548    -0.08079599589109421    -0.03833673894405365    0.05991257354617119    -0.04776156693696976    0.017056815326213837    0.018226636573672295    0.08053502440452576    -0.09229137003421783    0.09744159132242203    0.01954691670835018    0.012076485902071    -0.07122738659381866    -0.08761825412511826    -0.0776238963007927    0.09792393445968628    -0.0406164675951004    0.09856277704238892    -0.04305339604616165    0.09771911799907684    -0.09405726194381714    0.010964835993945599    0.05365501716732979    0.07866465300321579    0.08118672668933868    -0.08140810579061508    -0.06878314912319183    -0.08714799582958221    0.007837432436645031    -0.00983342994004488    -0.03237161040306091    -0.10437411069869995    -0.03765245899558067    -0.09926086664199829    0.09989695250988007    -0.037348125129938126    0.07161977142095566    -0.007635544054210186    0.038458701223134995    -0.012741838581860065    0.014435583725571632    0.0639006569981575    0.08419675379991531    -0.08077806234359741    -0.08607416599988937    -0.08990732580423355    0.02623177133500576    -0.023228691890835762    -0.005451406352221966    0.024291018024086952    -0.006015146616846323    0.0816587433218956    0.06853222846984863    0.01735663041472435    0.05106404423713684    -0.06582988053560257    -0.01948159746825695    0.09097849577665329    0.0777953639626503    0.0873619019985199    -0.02889871411025524    0.05109751224517822    -0.06856510788202286    0.09568667411804199    -0.0071879480965435505    -0.003990832716226578    0.00800216756761074    -0.024215448647737503    -0.06395312398672104    -0.025043921545147896    0.08741270005702972    -0.07235836982727051    -0.02674296870827675    0.04104248806834221    0.07967426627874374    -0.003695170860737562    0.06873951852321625    0.052319273352622986    0.09985724091529846    -0.09895883500576019    0.0871875062584877    0.04093966260552406    -0.07259072363376617    0.046303581446409225    0.050703972578048706    -0.08135372400283813    -0.08326060324907303    -0.06984840333461761    -0.012726614251732826    -0.07019491493701935    -0.082529716193676    -0.0833253562450409    0.04845364764332771    -0.009518692269921303    0.05213778465986252    -0.06652706116437912    -0.04937094449996948    0.10289186239242554    0.041667014360427856    -0.07789772003889084    0.06922470778226852    -0.06835953891277313    -0.10577543824911118    0.08874539285898209    0.012095220386981964    0.04633212462067604    0.0709759071469307    0.012266203761100769    0.005378589034080505    -0.06030694767832756    0.013253781013190746    -0.007675108965486288    -0.063959039747715    0.04676933214068413    0.0013229934265837073    0.005796833895146847    0.013922479934990406    0.03934726491570473    0.0037957490421831608    0.07458307594060898    0.007892967201769352    -0.04667501524090767    0.08219056576490402    0.05745481699705124    0.048194028437137604    -0.01983179710805416    0.05822213739156723    0.07098732143640518    0.09272187948226929    0.027683380991220474    -0.0186737272888422    -0.06700997799634933    0.01292289700359106    0.08551827818155289    0.05348258092999458    2.2029480533092283e-05    -0.04316461458802223    -0.08567611873149872    0.04813796281814575    0.04495415464043617    0.030420996248722076    -0.010799381881952286    -0.039805781096220016    -0.10242178291082382    0.0584569126367569    -0.0850030928850174    -0.01409140694886446    0.05109958350658417    -0.09720483422279358    0.018602147698402405    -0.03879696875810623    0.05486757308244705    0.09171073883771896    0.019404247403144836    -0.026045916602015495    -0.06630491465330124    -0.0525604709982872    0.05175700783729553    0.027991201728582382    -0.08758460730314255    -0.07532918453216553    0.0367373451590538    -0.04381128400564194    0.0641125962138176    0.05202223360538483    0.017542598769068718    0.016642672941088676    -0.1025497168302536    0.06233368441462517    0.052377961575984955    0.034782908856868744    -0.06713458150625229    -0.08957712352275848    0.09967651963233948    -0.013095674104988575    -0.02676612138748169    -0.045267753303050995    -0.0925380066037178    -0.08115272223949432    -0.02847294509410858    0.021959668025374413    -0.06638795137405396    -0.07121118903160095    0.06452202796936035    0.03923742100596428    0.10342283546924591    -0.03459080308675766    -0.03125004842877388    0.061866648495197296    -0.09304113686084747    0.01875227689743042    0.09638991206884384    -0.10489945113658905    -0.011825487948954105    0.09957631677389145    0.04839945212006569    -8.017721120268106e-05    0.052782319486141205    -0.02204485796391964    0.006955862045288086    -0.017571939155459404    0.05367080867290497    -0.029675213620066643    -0.01729176566004753    -0.0657600685954094    0.06655912846326828    0.07498325407505035    0.03269253298640251    -0.08127620816230774    0.10193540900945663    -0.003663975978270173    0.013026581145823002    0.06960558146238327    -0.06297244876623154    -0.07540852576494217    -0.09939845651388168    -0.005168520379811525    -0.09842240810394287    -0.02853287383913994    -0.0024750784505158663    -0.09080909192562103    -0.03348636254668236    0.08616669476032257    -0.0036385380662977695    0.003589227329939604    -0.043225664645433426    0.028456471860408783    0.06784000992774963    0.0713123232126236    0.08982332050800323    0.014979150146245956    0.08620213717222214    -0.04746733233332634    -0.042231183499097824    0.055695198476314545    0.010743178427219391    0.03566101938486099    -0.0868033841252327    -0.04539497196674347    0.011117956601083279    0.0063473815098404884    0.036968182772397995    -0.067501962184906    0.012101531960070133    -0.006797855719923973    -0.04713381081819534    0.09386719018220901    -0.0447935089468956    -0.06073954701423645    0.03506224602460861    0.04715019464492798    -0.07297622412443161    -0.01708463951945305    -0.03218226879835129    -0.0011659591691568494    -0.03238062188029289    0.01192543562501669    0.04131508618593216    0.08725302666425705    0.05804179981350899    0.008225075900554657    -0.0851697102189064    0.05412750691175461    -0.09247291833162308    0.03715594485402107    -0.011364977806806564    -0.060356609523296356    -0.08266615122556686    0.07726477086544037    0.01184569951146841    0.03178887069225311    -0.03896021470427513    -0.016206299886107445    0.002959474455565214    -0.05711089074611664    0.10016661137342453    -0.0363503098487854    0.05952633172273636    -0.036748770624399185    -0.020895663648843765    0.02889501489698887    -0.04806840419769287    0.030189793556928635    0.08179818838834763    0.0642697811126709    -0.07862494885921478    -0.002536937827244401    -0.08681557327508926    -0.023446019738912582    0.03835393115878105    0.04450880363583565    0.10033141076564789    -0.06703773140907288    0.004356964025646448    0.055620577186346054    -0.009535040706396103    0.02762570045888424    0.08343598246574402    -0.009094880893826485    -0.089758962392807    -0.012728103436529636    0.08754332363605499    -0.0026582323480397463    0.011247431859374046    -0.027453012764453888    -0.024507766589522362    0.09873674064874649    0.029423963278532028    0.08094514906406403    0.08492142707109451    0.05211428925395012    -0.029666010290384293    0.03789324313402176    0.0235983207821846    -0.0676041841506958    -0.02800419181585312    0.08388509601354599    -0.06217080354690552    -0.09198940545320511    0.09418736398220062    0.03312568739056587    -0.0651175007224083    -0.028711583465337753    -0.031052982434630394    0.08299694955348969    -0.08499770611524582    0.05507957190275192    0.06439868360757828    0.10287109762430191    -0.05679392069578171    0.049579158425331116    0.053556736558675766    0.05026834458112717    -0.07199101895093918    0.06047357618808746    0.08683424443006516    0.09262077510356903    -0.015286780893802643    -0.09748101979494095    0.012140427716076374    0.03058738447725773    0.04968559369444847    0.03230280429124832    -0.02806202322244644    0.05501294136047363    -0.03286385536193848    -0.048511605709791183    0.030172068625688553    0.0314987488090992    0.07501834630966187    -0.06485159695148468    -0.0797247514128685    0.013328214175999165    0.05047120526432991    -0.029857242479920387    -0.08689260482788086    0.017738958820700645    -0.017371652647852898    0.010291959159076214    0.04913846775889397    0.04500942304730415    0.02393398992717266    0.04932239279150963    0.09788919240236282    -0.02588890679180622    0.057456836104393005    -0.09695614129304886    0.09303268045186996    0.04905562475323677    -0.09931884706020355    -0.02063486911356449    -0.026719046756625175    -0.06114649027585983    0.0032188163604587317    -0.02259022928774357    0.0809018611907959    -0.06361765414476395    -0.03101070411503315    0.055452004075050354    0.09335324913263321    0.07548268139362335    0.1029312014579773    0.0675894021987915    -0.06253809481859207    0.026914546266198158    0.07040587812662125    0.03560065105557442    0.08711553364992142    0.06823109835386276    -0.07831673324108124    -0.0962245836853981    -0.04036170616745949    0.07349034398794174    -0.013171029277145863    -0.035750579088926315    -0.09728323668241501    0.04054487496614456    0.07561399042606354    0.08525595813989639    0.022710753604769707    -0.04083787277340889    0.060068726539611816    0.008396110497415066    0.08967200666666031    -0.07826025038957596    0.03805462270975113    0.07385224848985672    0.016981737688183784    -0.014063620939850807    -0.07377314567565918    0.09011869132518768    -0.0630883052945137    0.030363429337739944    -0.09466244280338287    -0.09173936396837234    0.044682618230581284    -0.09834478795528412    0.055180441588163376    0.01857571303844452    0.04599932208657265    -0.031049372628331184    -0.08008324354887009    -0.09341420233249664    -0.08266904205083847    -0.1034652516245842    0.06630995869636536    0.10289619117975235    0.04136213660240173    0.06374773383140564    -0.007435776758939028    -0.02690885215997696    -0.05242694541811943    0.03305477648973465    0.04403607174754143    -0.009349336847662926    -0.015104561112821102    -0.05262604355812073    -0.042221248149871826    0.06667374819517136    -0.020603282377123833    -0.072768434882164    -0.07022656500339508    0.0204402394592762    -0.10352284461259842    -0.05905940756201744    0.007033476606011391    -0.08148887008428574    -0.04703608527779579    0.01329106092453003    -0.002899736166000366    -0.049592021852731705    0.03362105414271355    -0.016617953777313232    0.07761316746473312    0.021097565069794655    -0.06790564209222794    -0.09377578645944595    0.07387280464172363    0.024131307378411293    -0.07029470801353455    0.09265415370464325    -0.0420130230486393    -0.045311812311410904    0.07447881996631622    -0.07986702024936676    0.06313175708055496    0.08902691304683685    -0.09330078214406967    0.01481334213167429    0.019244171679019928    -0.10227543115615845    0.10301098972558975    0.011461389251053333    0.06530874967575073    -0.019034771248698235    -0.06927511841058731    0.08163062483072281    0.009453765116631985    0.04571431502699852    -0.04186059534549713    0.09289471060037613    0.05438433587551117    0.09047746658325195    0.04400356486439705    0.023818008601665497    0.006558283697813749    -0.05351138859987259    0.05850743502378464    0.019183283671736717    -0.0696435421705246    -0.07835491001605988    0.06071973592042923    0.04720256105065346    -0.07723353803157806    0.07204397767782211    0.02341466210782528    0.03508663922548294    -0.0701676458120346    -0.031597837805747986    0.06094879284501076    -0.007022026460617781    -0.06907981634140015    0.053290363401174545    0.009740716777741909    0.07086231559515    -0.005824847146868706    -0.1027090772986412    -0.044703319668769836    -0.0022009408567100763    -0.05799323320388794    0.04266476631164551    0.09559503197669983    0.008366493508219719    -0.038216833025217056    -0.06285938620567322    0.03889279067516327    0.009263768792152405    -0.0657220333814621    -0.0270676426589489    0.07346528768539429    -0.0450543649494648    -0.018126197159290314    -0.045850809663534164    0.04657893255352974    0.09561414271593094    -0.03626394644379616    -0.09091858565807343    -0.06793852895498276    0.020743943750858307    -0.009825325571000576    0.04372113570570946    -0.028290120884776115    -0.09300295263528824    0.04491293430328369    0.0179843008518219    -0.017963949590921402    0.000942091690376401    0.03437890484929085    -0.034528691321611404    -0.011353792622685432    -0.02475193329155445    -0.05376249924302101    -0.07328834384679794    -0.04176951199769974    0.07779083400964737    0.033935144543647766    -0.008956088684499264    -0.08668401092290878    0.08736559003591537    -0.028367595747113228    0.0696004331111908    0.049140285700559616    0.06870243698358536    -0.0751129761338234    -0.07375180721282959    -0.027706068009138107    0.06768297404050827    -0.031086765229701996    -0.08562662452459335    0.00524449348449707    0.020286185666918755    -0.028511449694633484    0.051218971610069275    -0.09057264775037766    0.040382713079452515    -0.07874239981174469    0.04870297759771347    0.08730078488588333    0.00180944730527699    0.019484197720885277    0.08774536848068237    -0.0915735587477684    0.08468321710824966    0.04714515805244446    -0.07454700767993927    -0.03254953771829605    -0.049303025007247925    -0.05818244814872742    0.04418034479022026    -0.05960091948509216    0.07725638151168823    0.0622965432703495    0.01729005016386509    -0.09686190634965897    0.035229723900556564    -0.035902611911296844    -0.05076584592461586    0.0884261205792427    -0.07939174771308899    -0.08145859092473984    -0.10260997712612152    0.061409369111061096    0.014292651787400246    -0.08287664502859116    -0.07425923645496368    -0.025787394493818283    -0.07478944212198257    0.01970011182129383    0.027263356372714043    0.08678669482469559    -0.10116102546453476    -0.10279079526662827    0.04431690275669098    0.0433008074760437    0.055766891688108444    0.05641572177410126    0.079624705016613    -0.009355876594781876    0.09111011028289795    -0.08391620218753815    0.0719948559999466    0.026640938594937325    -0.09691378474235535    0.026583902537822723    -0.049400534480810165    -0.05591438338160515    -0.0358751155436039    0.016683297231793404    0.06154577434062958    -0.09741923958063126    0.011322509497404099    0.10217993706464767    -0.09566662460565567    -0.10018511861562729    0.02367803081870079    -0.03604504093527794    0.03297407925128937    -0.045627132058143616    0.010326865129172802    -0.04953737184405327    -0.02325861155986786    -0.10185626149177551    -0.08736075460910797    -0.03192475810647011    0.08110562711954117    0.09987006336450577    -0.09790714085102081    0.05744914710521698    -0.07441964745521545    -0.06568256765604019    -0.06778987497091293    0.10114465653896332    0.023432448506355286    -0.02531413361430168    0.016592806205153465    -0.07250799983739853    -0.01899164728820324    -0.0019964263774454594    -0.09473691880702972    -0.08664894104003906    0.08694720268249512    -0.035008128732442856    0.017044227570295334    0.06565020978450775    0.06675681471824646    0.09526735544204712    -0.09015785157680511    -0.019813694059848785    0.05180246755480766    0.07531847804784775    0.01964961551129818    -0.02187928929924965    -0.03641262277960777    -0.08108175545930862    -0.027080556377768517    -0.07559637725353241    -0.07785724848508835    0.101436085999012    0.0643085241317749    0.021637950092554092    -0.0921984612941742    -0.05442913994193077    0.003159090643748641    0.06520284712314606    -0.006352342665195465    -0.04478520154953003    0.07639681547880173    0.003958375658839941    0.04267306253314018    -0.012397068552672863    0.06555125117301941    0.026570873335003853    -0.03558021038770676    0.009424653835594654    0.04416665807366371    -0.057757310569286346    -0.043298736214637756    0.07290423661470413    0.10478426516056061    -0.012187352403998375    0.09757617115974426    0.06147003918886185    0.07941577583551407    -0.08041607588529587    -0.07054979354143143    -0.09552640467882156    -0.058785535395145416    0.1028660461306572    -0.014636512845754623    -0.015191618353128433    -0.037365030497312546    0.005818396341055632    0.09190575778484344    -0.03908590227365494    -0.06840714067220688    -0.049727000296115875    -0.07617862522602081    -0.04238945618271828    -0.02735922671854496    -0.03039916791021824    0.004811112303286791    0.10118667036294937    -0.06226180121302605    0.07520527392625809    0.001131658791564405    -0.10196933895349503    0.025103066116571426    0.015620921738445759    -0.10001448541879654    -0.007199347950518131    0.08255452662706375    -0.10492217540740967    -0.0007952958112582564    -0.1039813980460167    0.0037784031592309475    -0.02333785593509674    -0.09674035012722015    0.03617508336901665    0.07861868292093277    0.059450916945934296    -0.008550127036869526    0.014299090020358562    -0.0021012085489928722    -0.09204225242137909    -0.06330425292253494    -0.10145501047372818    -0.009935864247381687    0.056348711252212524    0.07928555458784103    0.05984771251678467    0.06090772524476051    -0.025240318849682808    0.0251595601439476    0.10105594247579575    -0.08725305646657944    -0.018680039793252945    0.009810302406549454    -0.0660204067826271    0.058262862265110016    -0.03252628073096275    -0.10111559182405472    0.006073180586099625    -0.0657273605465889    0.05839084833860397    0.00025344634195789695    -0.08482294529676437    0.04916924610733986    -0.0010378978913649917    -0.08099725097417831    0.022788140922784805    -0.0003490000090096146    0.105856753885746    0.06040564551949501    0.06426125764846802    -0.04065292701125145    0.08369888365268707    -0.08235111087560654    -0.03886141628026962    -0.04282476752996445    -0.0637604221701622    -0.09052248299121857    0.07982639223337173    -0.055624235421419144    -0.03930617496371269    -0.050809793174266815    0.05177747458219528    -0.017372675240039825    0.04966143146157265    0.05304287374019623    -0.06564129143953323    0.09544699639081955    0.09093065559864044    0.09451674669981003    -0.058543603867292404    0.07272512465715408    0.00893702544271946    0.017759257927536964    -0.020667288452386856    -0.09936253726482391    0.06465580314397812    -0.09098391234874725    -0.015746306627988815    -0.08167541772127151    -0.0582335889339447    0.009857063181698322    0.07110103964805603    0.003276307601481676    0.1034853607416153    -0.004643284250050783    0.050256818532943726    -0.06219303607940674    0.0743926465511322    0.05078515037894249    0.005724811926484108    -0.07274775952100754    0.07460179179906845    0.017619935795664787    -0.0297523345798254    0.09103895723819733    -0.10467088967561722    0.10280803591012955    -0.0005060342373326421    0.09723353385925293    -0.03953947126865387    -0.05325127765536308    -0.08248542249202728    -0.023968718945980072    0.09811670333147049    -0.059944767504930496    0.07745754718780518    -0.025865500792860985    -0.052793290466070175    -0.008565541356801987    0.04674692451953888    -0.08178835362195969    0.03702792152762413    -0.09969174116849899    0.09551293402910233    -0.027909116819500923    0.042880427092313766    -0.05788128077983856    -0.04880784824490547    -0.07453528791666031    -0.07205700129270554    -0.06961121410131454    0.01069920789450407    0.010004539974033833    -0.03429339826107025    0.07697954028844833    -0.06465834379196167    -0.013978002592921257    -0.09151354432106018    0.05464039742946625    0.04382399842143059    0.03296956047415733    0.042138583958148956    0.07363314181566238    0.03925732895731926    -0.0039078532718122005    -0.09617044776678085    0.06856325268745422    0.0008688578964211047    0.07952860742807388    0.09759080410003662    -0.05931314453482628    0.019183272495865822    0.08981575816869736    -0.0393940769135952    0.0317067988216877    -0.050863608717918396    0.02551201917231083    0.04928350821137428    -0.008969155140221119    -0.03867770731449127    -0.020126663148403168    0.0699215978384018    -0.01844239979982376    0.012137044221162796    -0.09725676476955414    0.026158688589930534    0.10371701419353485    -0.059798527508974075    -0.058842144906520844    0.019419245421886444    0.055069699883461    -0.07196144014596939    0.057320013642311096    -0.004233725368976593    -0.0772901102900505    0.10213357210159302    0.0330728143453598    -0.10565567761659622    -0.10270711779594421    0.01227117795497179    -0.01934017986059189    0.04583089053630829    0.08960841596126556    0.10203558206558228    0.07361070811748505    -0.08752692490816116    -0.08907154202461243    0.08641887456178665    0.07246844470500946    -0.0015573769342154264    -0.07131527364253998    0.10549120604991913    -0.053126800805330276    -0.09390021115541458    0.03126257285475731    -0.0025285298470407724    0.07685062289237976    0.0344327837228775    -0.0379682220518589    -0.057460371404886246    0.044047459959983826    -0.08765625953674316    -0.09609029442071915    0.05714298412203789    0.08835820108652115    -0.05553211644291878    -0.021616436541080475    -0.07985685765743256    0.043024346232414246    -0.09269534796476364    -0.08035309612751007    -0.10141050815582275    0.046954166144132614    -0.0013563595712184906    0.04314390942454338    0.03746325895190239    -0.10458508133888245    0.032070670276880264    -0.031150052323937416    0.005492157768458128    -0.003222603816539049    -0.09727072715759277    -0.05146682634949684    0.08298304677009583    0.059520285576581955    0.10127290338277817    0.013106821104884148    0.02380436286330223    0.06131774187088013    -0.03199414163827896    -0.015841418877243996    0.09296660870313644    -0.06508760899305344    0.04118042066693306    -0.031236667186021805    -0.0075268992222845554    0.09524916112422943    0.04407123103737831    0.06421657651662827    -0.05666477233171463    -0.05003819242119789    -0.04890557378530502    -0.03839147835969925    -0.09691622853279114    -0.06458371132612228    -0.06381652504205704    0.09268365800380707    0.015431379899382591    -0.0329882837831974    -0.03493700176477432    0.046373482793569565    0.013615897856652737    0.04021376371383667    0.0009713423205539584    -0.08798431605100632    0.10184863954782486    0.04247001186013222    -0.07284200191497803    -0.06507566571235657    -0.09111393243074417    0.08381190150976181    -0.01343964971601963    -0.03902669623494148    -0.018602905794978142    -0.03165455907583237    -0.06740531325340271    0.10019659250974655    0.054763395339250565    0.10228102654218674    0.04049517214298248    0.08854974061250687    0.09183994680643082    0.02308490127325058    -0.0535564087331295    -0.05651935189962387    0.017566422000527382    -0.10407797247171402    0.07875385135412216    -0.020916404202580452    0.10471688956022263    -0.022339774295687675    0.06254561990499496    -0.0829479992389679    0.0006233775056898594    0.0027797038201242685    -0.021271351724863052    0.04155367240309715    -0.03425988182425499    -0.013966311700642109    0.08872295916080475    -0.01160699874162674    0.010897965170443058    0.10138227045536041    -0.0165493655949831    0.026055144146084785    0.03723766282200813    0.10439588874578476    0.08033259212970734    0.0882956013083458    -0.02484559267759323    -0.009590297937393188    -0.009435662068426609    -0.022554602473974228    -0.10079655051231384    0.04834716022014618    0.05994021147489548    0.09814153611660004    -0.06519392132759094    -0.07207633554935455    0.006872226018458605    -0.044157568365335464    -0.05678589269518852    0.09693842381238937    -0.059805773198604584    0.010868966579437256    -0.09868083894252777    -0.022710349410772324    -0.06160138547420502    -0.03446240350604057    -0.0020470249000936747    0.006831802893429995    0.06515667587518692    -0.043234869837760925    0.0800359696149826    -0.01895681582391262    0.07654767483472824    0.014466071501374245    -0.011848085559904575    0.022929318249225616    -0.07088146358728409    -0.09789137542247772    -0.060642704367637634    0.029715510085225105    0.036507632583379745    0.03095741756260395    -0.0979398787021637    0.07354529201984406    0.09204968810081482    -0.0280219167470932    -0.09248968213796616    0.08768051117658615    -0.078765369951725    -0.06191359832882881    0.03340814262628555    0.05911952629685402    -0.017712585628032684    0.026923825964331627    -0.08539065718650818    0.0004882970242761075    0.009979493916034698    0.010534270666539669    0.006849742028862238    -0.1027665063738823    -0.06614671647548676    -0.05419836938381195    0.046353939920663834    -0.009475580416619778    -0.09854349493980408    0.004962162580341101    0.0911734327673912    0.07062792778015137    -0.00676727993413806    0.04426116496324539    0.030038049444556236    -0.08701582998037338    0.0409376285970211    0.03693452477455139    -0.011192920617759228    0.03842763230204582    -0.05571608990430832    0.040342580527067184    -0.012758553959429264    -0.06461039930582047    -0.03459051251411438    -0.03805522620677948    0.008646034635603428    0.045262452214956284    -0.012874862179160118    0.10433825850486755    -0.05257523059844971    0.05942864716053009    0.03136495500802994    -0.08151132613420486    0.00031891619437374175    0.06610245257616043    -0.08353476971387863    -0.033406805247068405    -0.028339507058262825    -0.0330602303147316    -0.09234417229890823    -0.013985841535031796    -0.05687178671360016    0.07777373492717743    0.04357719048857689    -0.005222804844379425    -0.04269712418317795    0.03320852667093277    0.016065122559666634    -0.00806969590485096    -0.05089861527085304    0.08323203772306442    0.02324802055954933    0.03153740614652634    -0.09809928387403488    -0.06383171677589417    0.01849811151623726    0.06513170897960663    0.10222763568162918    0.07035256922245026    -0.02151363715529442    -0.08841355890035629    -0.0867689996957779    0.0642891451716423    -0.10554952919483185    -0.05361892282962799    0.07252687960863113    0.07683028280735016    0.027559474110603333    0.005048841238021851    0.0601448118686676    0.03012961335480213    -0.07546218484640121    -0.06984014809131622    -0.05611781030893326    -0.07706835120916367    0.0903177410364151    -0.10487014055252075    0.010975554585456848    -0.09516383707523346    0.01574479229748249    -0.053857799619436264    -0.07824245095252991    0.07603916525840759    -0.044595394283533096    -0.09860526770353317    0.10083630681037903    0.03598068282008171    0.0921730250120163    -0.038942378014326096    -0.0012849689228460193    -0.0302900318056345    0.0824948400259018    -0.07191264629364014    -0.09890901297330856    0.056247979402542114    -0.07266726344823837    0.018405448645353317    0.029940173029899597    -0.08402223140001297    -0.0683523416519165    -0.00456304382532835    0.061897702515125275    -0.08052411675453186    -0.03714161738753319    0.0026997411623597145    0.05241439491510391    0.007110093720257282    0.09664052724838257    -0.06962727010250092    -0.07028257846832275    -0.08503732085227966    0.07747238129377365    0.013074187561869621    -0.07067717611789703    0.016475526615977287    -0.07094209641218185    0.0792783722281456    -0.056304726749658585    -0.10482558608055115    0.042546387761831284    -0.05010286718606949    0.09419219940900803    0.038497116416692734    0.0904814749956131    0.03889210894703865    -0.0346200168132782    0.07437930256128311    -0.014975161291658878    0.025367306545376778    -0.007433794438838959    -0.07146722078323364    0.08506088703870773    -0.01638464443385601    -0.010725541971623898    0.07220250368118286    -0.04483022168278694    0.020938673987984657    0.09419439733028412    -0.004819797817617655    0.09722825884819031    -0.006443313788622618    0.0571335032582283    0.025146102532744408    -0.035317715257406235    -0.08078482002019882    -0.062390971928834915    -0.1049622967839241    -0.015254992060363293    -0.07478969544172287    0.09558217972517014    -0.09243497997522354    0.06453639268875122    -0.0665423721075058    0.0917552262544632    -0.005173367913812399    0.04405920207500458    -0.04210006818175316    0.01906655915081501    -0.022941121831536293    -0.04013453423976898    0.025061242282390594    -0.05933376029133797    -0.08304835110902786    -0.019787978380918503    -0.03567991778254509    0.07965549826622009    -0.044141992926597595    -0.0014938513049855828    0.07305315136909485    -0.007490528281778097    -0.030522067099809647    0.08216600865125656    -0.02445368282496929    0.03469066321849823    -0.10287518799304962    0.06535691022872925    0.03639503940939903    -0.035911548882722855    -0.009228597395122051    0.08574507385492325    -0.05432170629501343    -0.09759286046028137    -0.10310587286949158    0.02599904127418995    -0.04751667007803917    0.10279468446969986    -0.07103519141674042    0.04356595501303673    0.05774002522230148    0.022284680977463722    -0.07386583089828491    -0.004788476973772049    0.042022984474897385    0.06270545721054077    -0.024626711383461952    0.047994740307331085    -0.00046538381138816476    -0.09840335696935654    -0.03436962515115738    0.02884998545050621    0.042941443622112274    -0.004037644248455763    -0.041314467787742615    0.020729955285787582    0.03330380097031593    0.10523650795221329    -0.04238080605864525    -0.056323979049921036    -0.03368447721004486    -0.08549367636442184    -0.04119028151035309    0.03409898653626442    -0.10538529604673386    0.07035262882709503    -4.145834827795625e-05    0.007389470469206572    0.04934053122997284    0.012257745489478111    -0.07308872789144516    -0.05789396911859512    0.05879051238298416    0.001221013953909278    0.009576940909028053    0.022517550736665726    0.05463816225528717    -0.07176877558231354    0.10341138392686844    0.05679628252983093    0.09151756763458252    -0.05996951088309288    0.022092172876000404    -0.040228698402643204    -0.009512140415608883    -0.005800002254545689    0.003795256605371833    0.02862316370010376    -0.10511419177055359    0.09802412241697311    -0.05633387714624405    -0.09850413352251053    0.07692983746528625    -0.05989699810743332    0.05657801777124405    -0.09613928198814392    0.004037391394376755    -0.002751703141257167    0.006286898162215948    0.09882613271474838    -0.09172699600458145    0.008291770704090595    0.04515763372182846    -0.06517500430345535    -0.002930943388491869    -0.0836775153875351    -0.030217250809073448    0.08581509441137314    -0.021581416949629784    0.03689512610435486    -0.011025256477296352    0.0003908623184543103    0.10420141369104385    -0.026327311992645264    -0.05487089231610298    0.07952196896076202    -0.0455053448677063    0.08408471941947937    0.019473744556307793    -0.07337769120931625    0.08925823867321014    -0.04293249174952507    -0.08124656975269318    0.021764811128377914    -0.10268145799636841    -0.09192117303609848    -0.0477944053709507    0.07923630625009537    0.022611968219280243    -0.08476897329092026    -0.03180886432528496    -0.09369059652090073    -0.03215281665325165    0.018668539822101593    0.07791468501091003    0.014481296762824059    -0.03932614624500275    -0.025704212486743927    0.03754669427871704    -0.10007364302873611    -0.06043754518032074    0.011848880909383297    -0.05600559338927269    -0.09085699915885925    0.036707375198602676    0.060849353671073914    -0.055798277258872986    0.08282899111509323    0.04654533788561821    0.07987719029188156    -0.032681018114089966    0.07333799451589584    0.08655764162540436    0.011775028891861439    0.028481530025601387    -0.09970299154520035    -0.035338062793016434    0.026200110092759132    -0.006203829776495695    -0.02159375138580799    0.05713648349046707    0.07991056889295578    0.008148698136210442    0.01148623414337635    0.004273378290235996    -0.10283114016056061    -0.0815250501036644    -0.09625423699617386    0.06122875213623047    0.008514627814292908    -0.035992056131362915    0.010378650389611721    0.06561101227998734    0.0418175607919693    -0.07732885330915451    -0.0021194631699472666    -0.057982008904218674    0.04658196121454239    0.051787368953228    -0.009584237821400166    -0.08386000990867615    -0.08961763232946396    0.06486352533102036    -0.03432939201593399    0.001649256912060082    0.023806104436516762    0.07656827569007874    0.1030162125825882    -0.07776331901550293    0.015672745183110237    -0.07053922116756439    -0.03834759443998337    -0.06901106983423233    0.02771163545548916    -0.051699087023735046    -0.04640995338559151    -0.05222734063863754    0.005948742385953665    0.10336949676275253    -0.022210538387298584    -0.01483534649014473    0.0057072765193879604    -0.08254373073577881    -0.028614729642868042    0.0748380497097969    0.04565155878663063    -0.010714584030210972    -0.09808552265167236    -0.06437066197395325    0.1041882187128067    -0.09827504307031631    -0.06423015147447586    -0.0016543824458494782    -0.07465534657239914    -0.017031414434313774    -0.041325222700834274    -0.03498310595750809    -0.007867529056966305    0.008837975561618805    -0.07172863185405731    -0.03831198066473007    0.08981014043092728    -0.01740053854882717    -0.01659574918448925    -0.05772871524095535    0.04615426063537598    -0.049858927726745605    0.016995850950479507    0.04091323912143707    -0.0807131752371788    0.03140818327665329    -0.04210849851369858    0.039190396666526794    0.053078677505254745    0.09975327551364899    -0.030111750587821007    0.030122430995106697    0.06020946055650711    -0.10170113295316696    -0.05937395617365837    -0.011313065886497498    -0.06867623329162598    0.07260401546955109    -0.09364888817071915    0.016223935410380363    0.06202011927962303    0.0879436656832695    0.015540719032287598    -0.017063746228814125    -0.05092792958021164    -0.021986305713653564    0.0827011838555336    -0.04956986755132675    -0.10551304370164871    0.06996552646160126    -0.07801801711320877    -0.07192923128604889    -0.00882997177541256    0.012044091708958149    -0.03306218609213829    -0.058196596801280975    0.027755985036492348    0.09020855277776718    0.0281863734126091    0.018072746694087982    -0.055998776108026505    -0.06551087647676468    -0.0677279680967331    -0.07776860892772675    0.021588638424873352    0.09851274639368057    0.042033422738313675    0.022107170894742012    0.05914760380983353    -0.07885218411684036    0.0024664306547492743    0.0002232236583949998    0.09060540050268173    0.05587046220898628    -0.0070755030028522015    0.021960753947496414    -0.05596817284822464    -0.0077077047899365425    -0.007094666827470064    0.07641736418008804    -0.08975344151258469    -0.027322817593812943    0.052011050283908844    -0.055859629064798355    0.07805026322603226    0.07124480605125427    0.010124699212610722    0.1018596887588501    0.07826884090900421    0.0353093184530735    -0.08148784190416336    -0.0028475597500801086    -0.07989369332790375    0.02729739248752594    -0.04716365411877632    -0.10237585753202438    0.06202903389930725    -0.03268076479434967    -0.044791702181100845    -0.08425901085138321    -0.059112608432769775    -0.0011557965772226453    0.09059089422225952    0.07635202258825302    -0.05216863751411438    0.0442892424762249    -0.05551788955926895    0.04945152625441551    -0.024019910022616386    0.07935153692960739    -0.025607522577047348    -0.028191259130835533    0.028073158115148544    0.07324634492397308    0.022500494495034218    0.005114879459142685    0.005343278869986534    0.05534324422478676    -0.05419730767607689    0.07923159748315811    0.05457675829529762    -0.0436813160777092    -0.03348400443792343    -0.04001645743846893    0.01462419144809246    0.08171045035123825    0.051705628633499146    -0.016416342929005623    -0.0472843162715435    -0.07685410231351852    -0.07653754949569702    -0.0460168719291687    -0.05401083454489708    0.06291696429252625    0.04817063361406326    -0.0492747463285923    0.08337736874818802    -0.04131724312901497    -0.06595029681921005    0.015211779624223709    -0.08550707995891571    -0.02921449951827526    0.10380803793668747    -0.06437535583972931    0.017954090610146523    -0.09780865907669067    0.09140901267528534    -0.0807177871465683    -0.054272208362817764    0.09869473427534103    0.06166653707623482    0.021033963188529015    -0.08170456439256668    0.08670651167631149    0.05246429890394211    -0.030931752175092697    0.0187072716653347    -0.007355397567152977    -0.07581618428230286    -0.08811629563570023    -0.07935907691717148    0.07683419436216354    -0.07438244670629501    0.08929190039634705    0.006393712945282459    -0.03994179517030716    -0.031586840748786926    0.09203960001468658    0.038078129291534424    0.06580092012882233    0.07548940181732178    0.06686612963676453    -0.002033794531598687    -0.0011405969271436334    -0.0894475057721138    0.0828411877155304    0.08824639022350311    -0.10093511641025543    -0.051957786083221436    0.013272440060973167    -0.042543016374111176    -0.011308206245303154    -0.019817039370536804    0.08263670653104782    0.046411797404289246    0.055496808141469955    -0.10213927924633026    0.0716719999909401    -0.09085550904273987    -0.04739609360694885    -0.010635126382112503    0.01741603948175907    -0.09642913192510605    0.09596863389015198    0.07600553333759308    -0.045661408454179764    0.0008636945276521146    -0.051728781312704086    -0.08037342131137848    -0.03917572647333145    -0.09234713762998581    0.0007690498023293912    0.08573812246322632    0.0030700385104864836    0.05805140733718872    0.0706588551402092    -0.10039796680212021    -0.06658349186182022    -0.06960899382829666    -0.06812915205955505    -0.033206988126039505    -0.051062315702438354    -0.08012861013412476    0.05982084572315216    0.017896737903356552    -0.04922635853290558    0.03675347939133644    0.00852521974593401    -0.06616061180830002    -0.006891465280205011    -0.0006320630200207233    0.04527254030108452    -0.00619966397061944    -0.090311199426651    0.04730936512351036    -0.10177132487297058    0.0591130368411541    0.02566867507994175    0.07755573838949203    -0.0372777059674263    0.07316837459802628    -0.019381461665034294    -0.06346992403268814    0.0764673724770546    0.06526453047990799    0.0462750643491745    -0.08562064170837402    0.08690195530653    -0.06823033839464188    0.10456092655658722    0.014433765783905983    0.008418316952884197    -0.025275805965065956    -0.10442846268415451    -0.08934367448091507    0.08830160647630692    -0.06218801066279411    -0.060982007533311844    -0.09259843826293945    -0.06241453066468239    0.08632924407720566    -0.09920237213373184    -0.10217822343111038    -0.013637094758450985    0.07309448719024658    0.06102236732840538    -0.03185199201107025    0.0035354222636669874    -0.10162623971700668    0.102444127202034    -0.0929989367723465    0.07257305085659027    0.046238262206315994    0.057605843991041183    -0.02174815908074379    -0.07043063640594482    0.021833816543221474    -0.07741384208202362    0.09476621448993683    -0.062177874147892    0.09850796312093735    -0.07182516157627106    0.08501394838094711    0.05340924486517906    -0.10007647424936295    -0.003692696336656809    0.05884445458650589    0.10077711939811707    0.03358883410692215    -0.019950807094573975    -0.05806834623217583    -0.09292354434728622    -0.020208127796649933    -0.09211207926273346    0.008814417757093906    0.08959628641605377    -0.020203812047839165    0.05934677645564079    0.09582935273647308    0.04963298887014389    -0.08705367892980576    0.005498911719769239    0.02344604581594467    0.09098368883132935    -0.10034779459238052    0.03417130932211876    0.02530774474143982    0.026951700448989868    -0.01710628904402256    0.0663791075348854    -0.09110196679830551    0.06821299344301224    -0.0554467998445034    -0.07488733530044556    -0.09421779215335846    -0.0896979495882988    0.04222375899553299    0.04820962995290756    0.04117131978273392    -0.02082635462284088    -0.04479721933603287    -0.021731268614530563    0.09399653971195221    -0.09952856600284576    0.06704340130090714    -0.0221283920109272    -0.025928925722837448    0.009902977384626865    0.0493537001311779    -0.10230808705091476    0.04684814438223839    -0.09232757240533829    0.03939300402998924    -0.08665665239095688    0.0962609127163887    -0.06810357421636581    -0.03998349606990814    0.08735234290361404    0.09533529728651047    -0.04379972070455551    0.003939098212867975    0.04649067670106888    0.08205258101224899    -0.0002867240982595831    0.081637442111969    -0.0033029576297849417    -0.05910089239478111    -0.03658069297671318    0.015351985581219196    -0.08758637309074402    0.00802597776055336    -0.009887563064694405    0.09509310126304626    0.009263705462217331    -0.09954624623060226    -0.10564146935939789    -0.07282984256744385    -0.046260129660367966    -0.03323537856340408    0.011086193844676018    0.05675088241696358    0.01763692870736122    -0.0036525889299809933    -0.032968852669000626    0.007117138244211674    -0.01880490779876709    -0.043193209916353226    0.01319235097616911    0.04798835143446922    -0.06808415055274963    -0.09316085278987885    0.06479775160551071    -0.06490644067525864    -0.07491948455572128    0.043561071157455444    0.046848561614751816    -0.017181353643536568    0.014760572463274002    0.031830795109272    0.043040379881858826    0.05441616103053093    0.05398412048816681    0.06327212601900101    0.07855886965990067    -0.04410179704427719    0.10005448013544083    -0.04618188366293907    0.009045595303177834    -0.08987255394458771    -0.05639910697937012    0.018123609945178032    -0.07673585414886475    0.06874432414770126    0.0931486114859581    -0.10034586489200592    -0.027811342850327492    -0.07416485249996185    -0.0036076714750379324    -0.031633008271455765    -0.0636022537946701    0.019901975989341736    -0.014195367693901062    -0.08986504375934601    0.038311515003442764    0.03392636030912399    -0.038809001445770264    -0.018098676577210426    0.09963036328554153    -0.003147589974105358    -0.1035042479634285    0.0052717747166752815    -0.06295257806777954    0.09916268289089203    -0.0295109823346138    0.039162229746580124    0.06967180967330933    0.09948013722896576    -0.030663294717669487    0.09178216755390167    0.02148165926337242    0.003706191899254918    -0.023173991590738297    0.05065293237566948    0.04631625860929489    0.06454486399888992    0.02119775116443634    -0.0595739409327507    -0.09205160290002823    0.005556706339120865    0.04100741818547249    -0.037714194506406784    -0.10205446928739548    0.060797516256570816    0.07229886204004288    0.06637060642242432    0.032422080636024475    0.038100335747003555    0.07925315946340561    0.06240829452872276    -0.00396927073597908    -0.07934104651212692    0.016462787985801697    0.08913318812847137    0.022500406950712204    -0.09152919799089432    0.028252070769667625    -0.08729776740074158    0.007811186835169792    -0.007827737368643284    -0.08148550987243652    0.03643282130360603    0.05585041269659996    -0.06359216570854187    -0.021275971084833145    0.093236044049263    -0.038469862192869186    -0.004038565792143345    -0.020856250077486038    -0.059259556233882904    0.10533904284238815    -0.0888526439666748    -0.08518330752849579    -0.010275597684085369    -0.01764320209622383    -0.07381387054920197    0.09208285063505173    -0.036887601017951965    -0.10389196872711182    0.0496513694524765    0.05767014995217323    0.07725109159946442    0.09780305624008179    0.026956282556056976    -0.028676778078079224    -0.04076765477657318    -0.09119462966918945    -0.07008421421051025    0.013838023878633976    -0.058264341205358505    0.0977831706404686    0.04174214228987694    0.048941273242235184    -0.09708275645971298    0.0842680037021637    0.06040110066533089    -0.04162976145744324    0.017559390515089035    -0.030105942860245705    -0.10487538576126099    0.06897751241922379    0.09860739856958389    0.048609115183353424    0.09967438876628876    -0.026036787778139114    0.07935883849859238    0.09596123546361923    0.057992879301309586    -0.062351711094379425    -0.025478098541498184    0.09653641283512115    0.004469295497983694    -0.044925887137651443    0.021049365401268005    -0.09438367187976837    0.10511689633131027    0.047643404453992844    0.09233470261096954    -0.06654931604862213    0.030262548476457596    -0.007752496283501387    -0.06616895645856857    0.01751665584743023    0.06272494047880173    0.07110204547643661    -0.023953570052981377    0.018585093319416046    0.01672816462814808    -0.07584916800260544    0.03143737092614174    -0.028629640117287636    -0.07433491945266724    -0.06524808704853058    -0.07226520776748657    -0.07168447226285934    0.09229395538568497    0.027590302750468254    -0.07542628049850464    -0.0844137892127037    0.09618398547172546    0.0038675309624522924    -0.09528866410255432    0.09847796708345413    0.01840313710272312    -0.10577746480703354    0.019309716299176216    -0.08959012478590012    0.07782110571861267    0.0794706642627716    0.03651785850524902    -0.004220936913043261    0.06988845765590668    0.046514347195625305    0.05833171680569649    -0.018700795248150826    0.060505855828523636    0.02878820151090622    -0.004688100889325142    -0.028649257495999336    0.018916482105851173    -0.009384255856275558    0.05178701505064964    0.02570706605911255    0.09030862152576447    -0.019498804584145546    0.047662973403930664    0.023530451580882072    0.03601081669330597    -0.05112665146589279    0.04270385205745697    0.07008034735918045    0.003004227764904499    0.005443238653242588    -0.0702994167804718    0.009487283416092396    -0.022731443867087364    -0.021349988877773285    0.04079185798764229    -0.008883031085133553    -0.03804386407136917    0.04872240498661995    -0.026935717090964317    -0.028997045010328293    -0.08102776110172272    0.026621168479323387    0.009128271602094173    0.08921536058187485    0.08579675853252411    -0.07113921642303467    -0.018611060455441475    -0.043948862701654434    0.0647934079170227    -0.09722540527582169    -0.017727065831422806    0.07249671220779419    0.0924733504652977    0.10553906112909317    -0.05907294154167175    -0.06441004574298859    -0.027789641171693802    -0.010959622450172901    -0.07019656896591187    -0.09284480661153793    -0.032659608870744705    0.08798538893461227    0.0014770104316994548    -0.10062378644943237    0.06610679626464844    0.035279132425785065    0.08610079437494278    0.07281911373138428    -0.011730540543794632    -0.09462609887123108    -0.07415256649255753    0.012369736097753048    0.010361620225012302    -0.10459846258163452    0.0900259017944336    -0.006495780777186155    0.05950615927577019    -0.029688632115721703    0.09027110785245895    -0.06561742722988129    0.02484690584242344    0.030670365318655968    0.04122697934508324    0.03254970163106918    -0.07179351896047592    -0.0902203842997551    -0.045415978878736496    0.07546518743038177    0.03663274273276329    -0.09527122974395752    -0.09477611631155014    -0.07009077817201614    0.03373449668288231    0.01698591560125351    -0.10049203783273697    -0.010980111546814442    0.06027628108859062    0.09029357880353928    0.01313371118158102    0.10197998583316803    -0.06041291728615761    0.005488433875143528    0.08631417155265808    -0.0031803499441593885    -0.10463862121105194    0.006539549212902784    0.010850434191524982    -0.09659323841333389    0.006352102849632502    -0.008837697096168995    0.07576824724674225    0.0006182646611705422    -0.037939589470624924    -0.00183638755697757    0.10330019891262054    -0.03333842009305954    -0.06554169207811356    0.018137875944375992    -0.0018646661192178726    0.026284780353307724    0.015353865921497345    -0.010258251801133156    0.021291108801960945    -0.03849917650222778    -0.020412655547261238    -0.10557959973812103    0.011986827477812767    0.029307756572961807    0.04163556545972824    0.10181258618831635    0.03720163181424141    -0.09144800901412964    0.08567731827497482    0.035804055631160736    0.020393630489706993    0.10274236649274826    -0.053737275302410126    0.005112682469189167    0.09432488679885864    0.10560239851474762    -0.08542165160179138    0.04480497166514397    0.04422635957598686    0.006310367025434971    0.000255920720519498    -0.004855019971728325    0.0994350016117096    0.06688280403614044    -0.06411808729171753    0.09827900677919388    0.05046229436993599    0.024868393316864967    -0.008279259316623211    -0.09616357088088989    0.07056736946105957    -0.02574087306857109    0.10171683877706528    -0.08366791903972626    -0.09085230529308319    0.08554152399301529    -0.0007271117065101862    -0.04888269677758217    0.09104929864406586    0.012627349235117435    -0.10585986077785492    -0.0074578565545380116    0.07866671681404114    -0.005673897918313742    0.0505097471177578    0.099924236536026    -0.04687314108014107    -0.0730494037270546    -0.05417328327894211    0.10099496692419052    0.011116858571767807    0.09931564331054688    0.03649836778640747    0.0007947655976749957    0.07478903979063034    -0.04442788287997246    -0.08101017773151398    -0.0358092300593853    -0.06435937434434891    0.0046750218607485294    -0.07342454046010971    -0.04920566827058792    0.03835929557681084    -0.0801466628909111    0.05303681269288063    0.001432484365068376    -0.06025441735982895    -0.023744143545627594    0.018954569473862648    -0.006523945368826389    -0.003927622921764851    0.05676940456032753    0.08457794040441513    0.10031143575906754    -0.07335016876459122    -0.03728804737329483    -0.046695493161678314    -0.002184933051466942    -0.06661608815193176    -0.06658957898616791    -0.10352835804224014    0.03162311017513275    0.098729707300663    0.07179918140172958    -0.015007315203547478    0.05035664141178131    -0.09601186215877533    0.02369622327387333    0.06809760630130768    0.07094579935073853    0.10067201405763626    -0.04281381145119667    -0.026306331157684326    -0.02263323962688446    0.024909334257245064    0.011768034659326077    -0.07622691243886948    0.07085789740085602    -0.06642046570777893    -0.03593561425805092    0.021112637594342232    -0.011723609641194344    -0.041659604758024216    -0.0721905305981636    -0.04912421479821205    0.01197206974029541    -0.022446349263191223    -0.01003257930278778    0.07893366366624832    0.0733458623290062    -0.036684300750494    -0.06713403761386871    0.08812239021062851    0.09980109333992004    0.041520699858665466    -0.05582776665687561    0.0642228052020073    -0.025369906798005104    -0.0720762312412262    -0.019770504906773567    -0.045676153153181076    -0.036631692200899124    0.0794588103890419    0.022428523749113083    0.030847106128931046    -0.03751760721206665    -0.09350735694169998    -0.07970505952835083    -0.057352397590875626    -0.07866347581148148    0.004933757707476616    -0.054759204387664795    0.0785302221775055    -0.024058150127530098    0.005956632550805807    -0.08435989171266556    -0.008393295109272003    0.10406377166509628    0.06591323018074036    -0.10566592216491699    -0.10210365056991577    -0.04385870322585106    0.024400383234024048    0.007421486079692841    -0.07851510494947433    -0.043520621955394745    -0.03281310573220253    -0.03973464295268059    -0.09664701670408249    0.06489371508359909    0.08999175578355789    -0.008970821276307106    -0.09118755906820297    -0.02289111725986004    0.0781017318367958    -0.08456744253635406    0.025369705632328987    0.055349960923194885    0.06726598739624023    0.04022882506251335    -0.0509154312312603    0.043455820530653    0.000839594635181129    -0.006387198809534311    -0.05722954869270325    0.07039087265729904    0.1035032868385315    -0.07531509548425674    -0.014422127045691013    0.04018811136484146    0.09901369363069534    -0.012403582222759724    -0.08926137536764145    0.030036522075533867    0.08094526082277298    -0.07551927119493484    0.06074323132634163    -0.07316204160451889    -0.017685923725366592    0.06791649758815765    -0.10272964090108871    0.10391382873058319    -0.015655815601348877    0.03353508189320564    -0.09535778313875198    0.004887956660240889    0.0009310453897342086    0.06517616659402847    -0.04775242879986763    -0.0013123005628585815    -0.0740298479795456    -0.025542784482240677    -0.06185576319694519    0.0696185976266861    -0.07696054130792618    0.07103266566991806    -0.09904302656650543    0.0734899714589119    0.08984284847974777    -0.09721793979406357    -0.08485356718301773    0.06994395703077316    0.024886218830943108    0.05676903575658798    -0.08662134408950806    0.07391287386417389    0.058822374790906906    -0.08174915611743927    0.009618083946406841    -0.03956080600619316    -0.06486760824918747    0.04513872042298317    -0.031999241560697556    -0.02992003597319126    0.03313083574175835    0.004103568382561207    0.09334437549114227    -0.08660983294248581    0.10043048113584518    -0.10022372007369995    0.004186863545328379    -0.05524415522813797    -0.014527439139783382    -0.05798297002911568    0.05092240124940872    0.040384065359830856    0.01158321462571621    -0.06560513377189636    0.00039535659016110003    0.10149060934782028    -0.062033314257860184    -0.047437287867069244    -0.05586552619934082    0.04391465336084366    -0.03552672266960144    0.03430323302745819    0.008466415107250214    -0.05284368619322777    0.07561279088258743    -0.07296709716320038    0.09799830615520477    -0.001802769023925066    -0.013023867271840572    0.023090481758117676    -0.06656498461961746    0.09386476129293442    0.020033711567521095    0.09154590219259262    0.08967508375644684    0.004071944393217564    -0.029715711250901222    -0.0159903597086668    0.099873386323452    -0.006961315870285034    -0.07913392037153244    0.06984417140483856    0.016785113140940666    -0.0867857113480568    0.015450038947165012    -0.035318709909915924    -0.03422227501869202    0.010959268547594547    -0.04883427172899246    -0.08119070529937744    -0.01771249808371067    -0.021826796233654022    -0.023339394479990005    -0.07390891015529633    -0.0682884007692337    0.05664752796292305    0.051069386303424835    0.06171131506562233    0.05277988314628601    -0.0992361307144165    0.0012993479613214731    -0.017367562279105186    -0.0572877861559391    -0.07248786091804504    0.0725809782743454    -0.06073083356022835    0.09483166038990021    -0.10213792324066162    -0.09385877847671509    0.04768223688006401    0.03346754238009453    -0.04442635551095009    0.07251858711242676    -0.004648157395422459    0.03351811319589615    -0.04618990048766136    0.048199672251939774    -0.07732368260622025    0.026820218190550804    -0.08800245821475983    0.03256992623209953    -0.025812719017267227    -0.013154225423932076    -0.032988041639328    0.09409502893686295    0.06577889621257782    -0.07497671246528625    0.027196485549211502    -0.06923079490661621    0.08796193450689316    -0.027068044990301132    0.04384332522749901    0.02574293129146099    0.0769180953502655    0.041077468544244766    -0.07340758293867111    -0.06763767451047897    0.023446423932909966    -0.07211751490831375    0.029021095484495163    0.05288318917155266    -0.007121316622942686    -0.036619916558265686    0.03914741054177284    -0.08158068358898163    0.07708156853914261    -0.03489367663860321    0.09426967799663544    -0.06236881762742996    -0.09632278978824615    -0.09408827871084213    0.07784237712621689    -0.044719114899635315    -0.016704343259334564    0.004881518427282572    -0.02329363115131855    -0.055594027042388916    0.045130807906389236    -0.020448634400963783    -0.014165726490318775    -0.03838968276977539    -0.059620749205350876    -0.062025535851716995    -0.004786293022334576    -0.036339085549116135    0.10101497918367386    -0.10552796721458435    -0.05207611247897148    0.08136699348688126    -0.014436139725148678    0.09742506593465805    -0.0683789998292923    -0.09062370657920837    -0.03917713835835457    0.027014127001166344    0.03107096068561077    0.0007040470372885466    -0.0836915522813797    -0.07517536729574203    0.05289829894900322    -0.10169795155525208    0.024084333330392838    -0.008134420029819012    -0.026371825486421585    0.035579074174165726    0.09060003608465195    0.056603141129016876    -0.06962503492832184    0.05209144204854965    0.0038732371758669615    -0.0660991370677948    -0.09970810264348984    -0.08869025856256485    -0.060440272092819214    -0.10162937641143799    0.08983393758535385    -0.09390375018119812    -0.05815146490931511    -0.05107688531279564    -0.041211917996406555    -0.029983196407556534    0.056511376053094864    -0.07047219574451447    -0.0721067562699318    -0.10150736570358276    -0.0746835395693779    -0.003579935757443309    0.082809679210186    0.029698340222239494    -0.07814714312553406    -0.0038257064297795296    -0.012095649726688862    0.07436440885066986    -0.0010311563964933157    0.01843414269387722    0.08889718353748322    -0.0829768255352974    0.09921254962682724    0.08258023113012314    -0.09744174778461456    -0.09336317330598831    -0.008737131953239441    -0.022260544821619987    0.024299917742609978    0.05238902196288109    0.05623254179954529    0.0746854692697525    0.08590985834598541    0.03857351839542389    -0.009231501258909702    -0.05806616321206093    0.08206405490636826    -0.0054804678075015545    0.08751234412193298    0.07568778842687607    0.06124968081712723    -0.05190534517168999    0.08878087997436523    0.09881842136383057    0.10119099915027618    0.09998801350593567    0.06520435959100723    -0.004002396948635578    -0.05276244878768921    -0.06836074590682983    0.07391911745071411    0.034550733864307404    0.07083065062761307    -0.006017873529344797    0.09691700339317322    0.0024274971801787615    0.08081107586622238    0.022530503571033478    -0.10581119358539581    0.009407294914126396    -0.07199720293283463    -0.02771100401878357    0.01876179501414299    -0.05755183473229408    -0.05816873535513878    -0.03817727789282799    -0.01266363076865673    -0.002711077919229865    0.04797292500734329    -0.06850820034742355    0.055853117257356644    -0.027308715507388115    0.00972107332199812    -0.09039957076311111    -0.05140717700123787    0.029668420553207397    0.06850745528936386    0.05797005444765091    0.09143498539924622    -0.047676000744104385    0.001422978239133954    0.07068173587322235    -0.0229460708796978    0.0006213071173988283    -0.059748005121946335    0.015968279913067818    0.08404161036014557    0.03009187988936901    -0.02048211544752121    0.02754174917936325    -0.04516888037323952    0.0399695560336113    0.01758173480629921    -0.04723310098052025    -0.05593286454677582    -0.08333823084831238    -0.012281997129321098    -0.10388036072254181    0.09891332685947418    -0.06244499236345291    -0.10134058445692062    -0.03975791111588478    0.08034826070070267    0.009131617844104767    -0.0786050483584404    0.004752623848617077    -0.01759251579642296    0.006735706236213446    0.007013706956058741    0.07505212724208832    0.041849713772535324    0.09274905920028687    0.0323074534535408    -0.04779087007045746    -0.0518842376768589    -0.0769294947385788    -0.09258325397968292    0.04297005012631416    -0.034022025763988495    0.07094352692365646    -0.022947711870074272    -0.08937309682369232    -0.04726587235927582    -0.08750992268323898    0.02840784192085266    0.059291254729032516    -0.01681988127529621    0.0644560158252716    0.03425126150250435    0.0182885080575943    -0.09212075173854828    0.032977133989334106    -0.07061169296503067    -0.00833872053772211    0.045397017151117325    -0.013268476352095604    0.05074852705001831    -0.09481798857450485    -0.018810993060469627    0.007001587655395269    -0.10493483394384384    0.061637893319129944    -0.09000235795974731    -0.09793960303068161    0.08726879954338074    -0.03168604522943497    0.06459031254053116    0.043074287474155426    -0.031785763800144196    0.05015537142753601    0.08065073937177658    0.08889461308717728    -0.09538354724645615    -0.08841901272535324    0.02022167481482029    -0.053745947778224945    -0.009166132658720016    -0.03458234667778015    0.03368927538394928    -0.09109428524971008    -0.019524142146110535    0.011677670292556286    0.08811022341251373    0.019705679267644882    -0.08612417429685593    0.09966912120580673    0.009429589845240116    0.04532051086425781    -0.062693290412426    -0.049302052706480026    0.002296885708346963    0.08645256608724594    -0.10365596413612366    -0.08674127608537674    -0.06765950471162796    0.0521877259016037    -0.03392060473561287    -0.05633723363280296    0.010715329088270664    -0.030869260430336    -0.09605500102043152    -0.017856024205684662    0.07754306495189667    0.10429593175649643    0.015854762867093086    0.06217244639992714    0.042296186089515686    -0.07143034785985947    -0.08218658715486526    -0.09278486669063568    -0.012766014784574509    0.04191429913043976    0.00037697554216720164    -0.07554803043603897    -0.04811883717775345    -0.04760998860001564    -0.0863756388425827    0.04933243989944458    -0.07589607685804367    0.089647576212883    0.09873191267251968    0.0660025104880333    0.07822451740503311    0.08991258591413498    -0.04410050809383392    0.04809631407260895    -0.044926341623067856    0.02017531730234623    -0.052459679543972015    -0.041829515248537064    -0.03334030136466026    0.02481107786297798    -0.042329199612140656    -0.020362284034490585    0.025701120495796204    0.07717368751764297    -0.0204166192561388    0.011337721720337868    0.04262339696288109    -0.022129995748400688    0.01599716581404209    0.03668360412120819    -0.02440880425274372    -0.019618041813373566    0.004049208015203476    -0.011127034202218056    0.0674915611743927    0.0379767045378685    0.023251492530107498    -0.015584109351038933    -0.10565360635519028    -0.046198055148124695    0.08265199512243271    0.09576404839754105    -0.0062655252404510975    -0.08683903515338898    -0.06223195791244507    -0.014146019704639912    -0.051347751170396805    0.07527446746826172    0.05145803838968277    0.024167224764823914    0.10164809972047806    0.02051372639834881    0.04219880327582359    0.0787871703505516    -0.06158595532178879    0.08378896117210388    0.10560614615678787    -0.09103339165449142    -0.028408005833625793    0.09411011636257172    0.04916967451572418    -0.10348290950059891    -0.037269387394189835    0.02769131027162075    -0.06826727837324142    -0.020352261140942574    0.0931825339794159    0.00825466774404049    -0.08162053674459457    -0.02072087861597538    0.026868820190429688    0.08842719346284866    0.08338482677936554    0.062033504247665405    0.013412557542324066    -0.0438983291387558    0.07022956758737564    -0.038654327392578125    0.020231520757079124    -0.07818838208913803    -0.0757252499461174    0.005632793065160513    -0.07358542084693909    0.04162741079926491    -0.08446185290813446    0.10254298150539398    0.04256788641214371    0.012876023538410664    -0.022421820089221    0.056064967066049576    -0.0064666434191167355    -0.09771817922592163    0.06376814842224121    -0.05409036576747894    0.1010134220123291    0.017955049872398376    0.07261236011981964    0.05091094970703125    0.06778047233819962    0.05362752079963684    -0.028664343059062958    -0.06257899105548859    -0.029365310445427895    0.02473146840929985    -0.010901058092713356    -0.028567679226398468    0.08304887264966965    0.07697143405675888    0.08560357987880707    -0.03981446847319603    -0.005171171389520168    0.056982919573783875    0.06769804656505585    -0.10229584574699402    -0.06526518613100052    0.0035178493708372116    -0.05241432040929794    -0.07069577276706696    0.022557860240340233    0.07273761183023453    -0.038561780005693436    -0.05135497450828552    -0.053655002266168594    -0.10098490864038467    -0.005742182955145836    0.02892436645925045    0.03681551665067673    0.03093276172876358    -0.04891540855169296    -0.025196650996804237    -0.09101259708404541    -0.05659031495451927    0.0578579381108284    0.03710024431347847    -0.07332675158977509    -0.09305815398693085    0.07469584792852402    -0.09218565374612808    0.08051922917366028    -0.10554620623588562    0.08876606822013855    -0.05869795009493828    -0.09728609025478363    -0.0558086521923542    0.04569082334637642    -0.08465433120727539    -0.08533176779747009    0.04022461920976639    -0.0681539997458458    -0.056044045835733414    0.0016530064167454839    0.09586560726165771    0.1010722815990448    -0.016613498330116272    0.031935978680849075    0.04054094851016998    -0.0007255336968228221    0.028072236105799675    0.06575244665145874    0.040516290813684464    0.03573109954595566    0.004144547041505575    -0.09216970950365067    -0.10266108810901642    -0.09850668162107468    0.07391031086444855    -0.04289025068283081    -0.06710023432970047    0.026600150391459465    0.10235892981290817    -0.04524833709001541    0.104047991335392    0.0864391028881073    0.008170917630195618    0.06522148102521896    -0.09307359904050827    0.060291796922683716    0.09415589272975922    -0.048712924122810364    0.030688391998410225    -0.029239559546113014    0.07916538417339325    0.0280293021351099    -0.029355047270655632    -0.05797392874956131    0.06640196591615677    0.05338115617632866    -0.018852943554520607    0.1001647561788559    -0.022350694984197617    -0.043752189725637436    0.031948186457157135    0.04972854256629944    -0.04504401236772537    -0.0002918622049037367    0.06572526693344116    0.10144951939582825    -0.07957436144351959    0.09168002009391785    -0.04742991551756859    -0.023132583126425743    0.0700833648443222    -0.018690025433897972    0.005272418726235628    -0.028614211827516556    0.06478431075811386    0.04887969419360161    0.03574105724692345    -0.10149838030338287    0.027972694486379623    -0.02595532312989235    0.04297756031155586    -0.026012297719717026    -0.026057681068778038    0.07045663893222809    0.019115934148430824    -0.009173315949738026    0.029695702716708183    -0.0781230628490448    -0.08316366374492645    0.01853102259337902    0.03595201298594475    0.013518703170120716    -0.04982050880789757    -0.0837051197886467    0.031706053763628006    -0.06056566908955574    0.09223470836877823    -0.01596694253385067    0.02496003359556198    0.09545277804136276    0.05136032775044441    0.06924205273389816    -0.03524988517165184    -0.007598719093948603    0.08796638250350952    0.07148454338312149    -0.026768647134304047    0.0361001081764698    -0.0708153247833252    0.0032449362333863974    0.028895849362015724    0.03987488895654678    0.02723344974219799    0.05505453795194626    0.000921286758966744    -0.005465192254632711    -0.09897219389677048    -0.01761048100888729    0.026254065334796906    -0.022973591461777687    -0.023705678060650826    -0.10203613340854645    0.010929614305496216    -0.06297115981578827    0.035283904522657394    -0.008281683549284935    0.0960576981306076    -0.05589091405272484    0.06141125038266182    -0.07380969077348709    0.04722961410880089    -0.009832937270402908    0.042034510523080826    -0.025737175717949867    -0.06349282711744308    -0.07530393451452255    -0.005559079349040985    -0.0663164034485817    -0.041413504630327225    0.0381898395717144    -0.07199513167142868    0.0638469010591507    0.08103308081626892    -0.042018577456474304    0.09130122512578964    0.05040889233350754    -0.08609605580568314    0.009435157291591167    0.07573157548904419    -0.05771122872829437    -0.02195172756910324    -0.037989139556884766    0.06381668895483017    0.08272610604763031    0.09897870570421219    0.016352578997612    -0.01616177335381508    -0.0032662965822964907    -0.01425910834223032    0.06974185258150101    0.06315335631370544    0.04445790499448776    0.05736289918422699    -0.05338679999113083    -0.037037719041109085    -0.02384311892092228    